digraph Tree {
node [shape=box, style="rounded", color="black", fontname=helvetica] ;
edge [fontname=helvetica] ;
0 [label="oldpeak <= 0.9\ngini = 0.5\nsamples = 129\nvalue = [103, 109]"] ;
1 [label="sex <= 0.5\ngini = 0.3\nsamples = 65\nvalue = [22, 86]"] ;
0 -> 1 [labeldistance=2.5, labelangle=45, headlabel="True"] ;
2 [label="ca <= 1.5\ngini = 0.0\nsamples = 24\nvalue = [1, 38]"] ;
1 -> 2 ;
3 [label="gini = 0.0\nsamples = 22\nvalue = [0, 36]"] ;
2 -> 3 ;
4 [label="age <= 60.5\ngini = 0.4\nsamples = 2\nvalue = [1, 2]"] ;
2 -> 4 ;
5 [label="gini = 0.0\nsamples = 1\nvalue = [1, 0]"] ;
4 -> 5 ;
6 [label="gini = 0.0\nsamples = 1\nvalue = [0, 2]"] ;
4 -> 6 ;
7 [label="thal <= 2.5\ngini = 0.4\nsamples = 41\nvalue = [21, 48]"] ;
1 -> 7 ;
8 [label="chol <= 321.5\ngini = 0.3\nsamples = 21\nvalue = [7, 31]"] ;
7 -> 8 ;
9 [label="thal <= 1.5\ngini = 0.3\nsamples = 20\nvalue = [6, 31]"] ;
8 -> 9 ;
10 [label="gini = 0.0\nsamples = 1\nvalue = [2, 0]"] ;
9 -> 10 ;
11 [label="trestbps <= 158.0\ngini = 0.2\nsamples = 19\nvalue = [4, 31]"] ;
9 -> 11 ;
12 [label="age <= 51.5\ngini = 0.1\nsamples = 18\nvalue = [1, 31]"] ;
11 -> 12 ;
13 [label="gini = 0.0\nsamples = 11\nvalue = [0, 18]"] ;
12 -> 13 ;
14 [label="age <= 53.0\ngini = 0.1\nsamples = 7\nvalue = [1, 13]"] ;
12 -> 14 ;
15 [label="gini = 0.0\nsamples = 1\nvalue = [1, 0]"] ;
14 -> 15 ;
16 [label="gini = 0.0\nsamples = 6\nvalue = [0, 13]"] ;
14 -> 16 ;
17 [label="gini = 0.0\nsamples = 1\nvalue = [3, 0]"] ;
11 -> 17 ;
18 [label="gini = 0.0\nsamples = 1\nvalue = [1, 0]"] ;
8 -> 18 ;
19 [label="cp <= 0.5\ngini = 0.5\nsamples = 20\nvalue = [14, 17]"] ;
7 -> 19 ;
20 [label="restecg <= 0.5\ngini = 0.5\nsamples = 11\nvalue = [9, 8]"] ;
19 -> 20 ;
21 [label="ca <= 0.5\ngini = 0.3\nsamples = 5\nvalue = [5, 1]"] ;
20 -> 21 ;
22 [label="gini = 0.0\nsamples = 1\nvalue = [0, 1]"] ;
21 -> 22 ;
23 [label="gini = 0.0\nsamples = 4\nvalue = [5, 0]"] ;
21 -> 23 ;
24 [label="thalach <= 151.5\ngini = 0.5\nsamples = 6\nvalue = [4, 7]"] ;
20 -> 24 ;
25 [label="gini = 0.0\nsamples = 2\nvalue = [0, 5]"] ;
24 -> 25 ;
26 [label="oldpeak <= 0.1\ngini = 0.4\nsamples = 4\nvalue = [4, 2]"] ;
24 -> 26 ;
27 [label="age <= 48.5\ngini = 0.4\nsamples = 2\nvalue = [1, 2]"] ;
26 -> 27 ;
28 [label="gini = 0.0\nsamples = 1\nvalue = [1, 0]"] ;
27 -> 28 ;
29 [label="gini = 0.0\nsamples = 1\nvalue = [0, 2]"] ;
27 -> 29 ;
30 [label="gini = 0.0\nsamples = 2\nvalue = [3, 0]"] ;
26 -> 30 ;
31 [label="thalach <= 159.5\ngini = 0.5\nsamples = 9\nvalue = [5, 9]"] ;
19 -> 31 ;
32 [label="oldpeak <= 0.4\ngini = 0.2\nsamples = 6\nvalue = [1, 8]"] ;
31 -> 32 ;
33 [label="trestbps <= 112.5\ngini = 0.4\nsamples = 3\nvalue = [1, 2]"] ;
32 -> 33 ;
34 [label="gini = 0.0\nsamples = 2\nvalue = [0, 2]"] ;
33 -> 34 ;
35 [label="gini = 0.0\nsamples = 1\nvalue = [1, 0]"] ;
33 -> 35 ;
36 [label="gini = 0.0\nsamples = 3\nvalue = [0, 6]"] ;
32 -> 36 ;
37 [label="slope <= 0.5\ngini = 0.3\nsamples = 3\nvalue = [4, 1]"] ;
31 -> 37 ;
38 [label="gini = 0.0\nsamples = 1\nvalue = [0, 1]"] ;
37 -> 38 ;
39 [label="gini = 0.0\nsamples = 2\nvalue = [4, 0]"] ;
37 -> 39 ;
40 [label="cp <= 0.5\ngini = 0.3\nsamples = 64\nvalue = [81, 23]"] ;
0 -> 40 [labeldistance=2.5, labelangle=-45, headlabel="False"] ;
41 [label="sex <= 0.5\ngini = 0.2\nsamples = 40\nvalue = [66, 6]"] ;
40 -> 41 ;
42 [label="age <= 61.0\ngini = 0.5\nsamples = 6\nvalue = [5, 3]"] ;
41 -> 42 ;
43 [label="gini = 0.0\nsamples = 4\nvalue = [5, 0]"] ;
42 -> 43 ;
44 [label="gini = 0.0\nsamples = 2\nvalue = [0, 3]"] ;
42 -> 44 ;
45 [label="trestbps <= 156.0\ngini = 0.1\nsamples = 34\nvalue = [61, 3]"] ;
41 -> 45 ;
46 [label="chol <= 203.5\ngini = 0.0\nsamples = 32\nvalue = [60, 1]"] ;
45 -> 46 ;
47 [label="oldpeak <= 1.5\ngini = 0.1\nsamples = 8\nvalue = [15, 1]"] ;
46 -> 47 ;
48 [label="age <= 55.5\ngini = 0.3\nsamples = 3\nvalue = [4, 1]"] ;
47 -> 48 ;
49 [label="gini = 0.0\nsamples = 2\nvalue = [4, 0]"] ;
48 -> 49 ;
50 [label="gini = 0.0\nsamples = 1\nvalue = [0, 1]"] ;
48 -> 50 ;
51 [label="gini = 0.0\nsamples = 5\nvalue = [11, 0]"] ;
47 -> 51 ;
52 [label="gini = 0.0\nsamples = 24\nvalue = [45, 0]"] ;
46 -> 52 ;
53 [label="exang <= 0.5\ngini = 0.4\nsamples = 2\nvalue = [1, 2]"] ;
45 -> 53 ;
54 [label="gini = 0.0\nsamples = 1\nvalue = [0, 2]"] ;
53 -> 54 ;
55 [label="gini = 0.0\nsamples = 1\nvalue = [1, 0]"] ;
53 -> 55 ;
56 [label="ca <= 0.5\ngini = 0.5\nsamples = 24\nvalue = [15, 17]"] ;
40 -> 56 ;
57 [label="slope <= 1.5\ngini = 0.5\nsamples = 15\nvalue = [9, 14]"] ;
56 -> 57 ;
58 [label="chol <= 240.5\ngini = 0.5\nsamples = 12\nvalue = [9, 11]"] ;
57 -> 58 ;
59 [label="sex <= 0.5\ngini = 0.4\nsamples = 6\nvalue = [8, 3]"] ;
58 -> 59 ;
60 [label="gini = 0.0\nsamples = 3\nvalue = [0, 3]"] ;
59 -> 60 ;
61 [label="gini = 0.0\nsamples = 3\nvalue = [8, 0]"] ;
59 -> 61 ;
62 [label="exang <= 0.5\ngini = 0.2\nsamples = 6\nvalue = [1, 8]"] ;
58 -> 62 ;
63 [label="gini = 0.0\nsamples = 5\nvalue = [0, 8]"] ;
62 -> 63 ;
64 [label="gini = 0.0\nsamples = 1\nvalue = [1, 0]"] ;
62 -> 64 ;
65 [label="gini = 0.0\nsamples = 3\nvalue = [0, 3]"] ;
57 -> 65 ;
66 [label="oldpeak <= 1.9\ngini = 0.4\nsamples = 9\nvalue = [6, 3]"] ;
56 -> 66 ;
67 [label="restecg <= 0.5\ngini = 0.5\nsamples = 5\nvalue = [2, 3]"] ;
66 -> 67 ;
68 [label="exang <= 0.5\ngini = 0.4\nsamples = 3\nvalue = [2, 1]"] ;
67 -> 68 ;
69 [label="gini = 0.0\nsamples = 2\nvalue = [2, 0]"] ;
68 -> 69 ;
70 [label="gini = 0.0\nsamples = 1\nvalue = [0, 1]"] ;
68 -> 70 ;
71 [label="gini = 0.0\nsamples = 2\nvalue = [0, 2]"] ;
67 -> 71 ;
72 [label="gini = 0.0\nsamples = 4\nvalue = [4, 0]"] ;
66 -> 72 ;
}